digraph Tree {
node [shape=box] ;
0 [label="name=Lux Black XL <= 0.5\nmse = 86.856\nsamples = 408304\nvalue = 16.535"] ;
1 [label="name=Black SUV <= 0.5\nmse = 66.371\nsamples = 375651\nvalue = 15.163"] ;
0 -> 1 [labeldistance=2.5, labelangle=45, headlabel="True"] ;
2 [label="name=Lux Black <= 0.5\nmse = 44.656\nsamples = 340465\nvalue = 13.598"] ;
1 -> 2 ;
3 [label="name=Black <= 0.5\nmse = 34.449\nsamples = 307716\nvalue = 12.592"] ;
2 -> 3 ;
4 [label="name=Lux <= 0.5\nmse = 26.583\nsamples = 272624\nvalue = 11.571"] ;
3 -> 4 ;
5 [label="name=UberXL <= 0.5\nmse = 20.382\nsamples = 239810\nvalue = 10.723"] ;
4 -> 5 ;
6 [label="name=Lyft XL <= 0.5\nmse = 15.355\nsamples = 204373\nvalue = 9.863"] ;
5 -> 6 ;
7 [label="distance <= 1.775\nmse = 7.434\nsamples = 171398\nvalue = 8.813"] ;
6 -> 7 ;
8 [label="mse = 3.491\nsamples = 72713\nvalue = 7.208"] ;
7 -> 8 ;
9 [label="mse = 7.045\nsamples = 98685\nvalue = 9.995"] ;
7 -> 9 ;
10 [label="distance <= 2.445\nmse = 20.985\nsamples = 32975\nvalue = 15.323"] ;
6 -> 10 ;
11 [label="mse = 8.15\nsamples = 19955\nvalue = 12.846"] ;
10 -> 11 ;
12 [label="mse = 16.858\nsamples = 13020\nvalue = 19.118"] ;
10 -> 12 ;
13 [label="distance <= 2.195\nmse = 20.525\nsamples = 35437\nvalue = 15.681"] ;
5 -> 13 ;
14 [label="distance <= 1.255\nmse = 6.979\nsamples = 18044\nvalue = 12.824"] ;
13 -> 14 ;
15 [label="mse = 3.749\nsamples = 8672\nvalue = 11.388"] ;
14 -> 15 ;
16 [label="mse = 6.294\nsamples = 9372\nvalue = 14.152"] ;
14 -> 16 ;
17 [label="distance <= 3.6\nmse = 17.319\nsamples = 17393\nvalue = 18.645"] ;
13 -> 17 ;
18 [label="mse = 11.182\nsamples = 14539\nvalue = 17.678"] ;
17 -> 18 ;
19 [label="mse = 19.521\nsamples = 2854\nvalue = 23.574"] ;
17 -> 19 ;
20 [label="distance <= 2.125\nmse = 28.199\nsamples = 32814\nvalue = 17.771"] ;
4 -> 20 ;
21 [label="distance <= 1.295\nmse = 7.97\nsamples = 16252\nvalue = 14.052"] ;
20 -> 21 ;
22 [label="distance <= 0.935\nmse = 3.307\nsamples = 8504\nvalue = 12.477"] ;
21 -> 22 ;
23 [label="mse = 1.582\nsamples = 3372\nvalue = 11.151"] ;
22 -> 23 ;
24 [label="mse = 2.525\nsamples = 5132\nvalue = 13.349"] ;
22 -> 24 ;
25 [label="surge_multiplier <= 1.375\nmse = 7.374\nsamples = 7748\nvalue = 15.781"] ;
21 -> 25 ;
26 [label="mse = 3.661\nsamples = 7431\nvalue = 15.406"] ;
25 -> 26 ;
27 [label="mse = 13.716\nsamples = 317\nvalue = 24.579"] ;
25 -> 27 ;
28 [label="surge_multiplier <= 1.375\nmse = 21.17\nsamples = 16562\nvalue = 21.42"] ;
20 -> 28 ;
29 [label="distance <= 3.545\nmse = 11.874\nsamples = 15781\nvalue = 20.819"] ;
28 -> 29 ;
30 [label="mse = 6.198\nsamples = 13331\nvalue = 19.799"] ;
29 -> 30 ;
31 [label="mse = 6.355\nsamples = 2450\nvalue = 26.364"] ;
29 -> 31 ;
32 [label="distance <= 3.545\nmse = 54.226\nsamples = 781\nvalue = 33.564"] ;
28 -> 32 ;
33 [label="mse = 33.18\nsamples = 649\nvalue = 31.548"] ;
32 -> 33 ;
34 [label="mse = 39.446\nsamples = 132\nvalue = 43.477"] ;
32 -> 34 ;
35 [label="distance <= 2.195\nmse = 24.522\nsamples = 35092\nvalue = 20.526"] ;
3 -> 35 ;
36 [label="distance <= 1.645\nmse = 3.843\nsamples = 17834\nvalue = 16.868"] ;
35 -> 36 ;
37 [label="distance <= 1.345\nmse = 2.099\nsamples = 14347\nvalue = 16.254"] ;
36 -> 37 ;
38 [label="destination=Theatre District <= 0.5\nmse = 1.274\nsamples = 9752\nvalue = 15.826"] ;
37 -> 38 ;
39 [label="mse = 1.124\nsamples = 8810\nvalue = 15.738"] ;
38 -> 39 ;
40 [label="mse = 1.928\nsamples = 942\nvalue = 16.65"] ;
38 -> 40 ;
41 [label="destination=Back Bay <= 0.5\nmse = 2.633\nsamples = 4595\nvalue = 17.163"] ;
37 -> 41 ;
42 [label="mse = 2.51\nsamples = 3207\nvalue = 17.54"] ;
41 -> 42 ;
43 [label="mse = 1.836\nsamples = 1388\nvalue = 16.294"] ;
41 -> 43 ;
44 [label="destination=Back Bay <= 0.5\nmse = 3.09\nsamples = 3487\nvalue = 19.394"] ;
36 -> 44 ;
45 [label="source=North End <= 0.5\nmse = 2.825\nsamples = 3101\nvalue = 19.247"] ;
44 -> 45 ;
46 [label="mse = 2.812\nsamples = 2890\nvalue = 19.181"] ;
45 -> 46 ;
47 [label="mse = 2.14\nsamples = 211\nvalue = 20.147"] ;
45 -> 47 ;
48 [label="distance <= 1.845\nmse = 3.654\nsamples = 386\nvalue = 20.571"] ;
44 -> 48 ;
49 [label="mse = 3.086\nsamples = 146\nvalue = 19.147"] ;
48 -> 49 ;
50 [label="mse = 2.015\nsamples = 240\nvalue = 21.438"] ;
48 -> 50 ;
51 [label="distance <= 3.585\nmse = 17.783\nsamples = 17258\nvalue = 24.305"] ;
35 -> 51 ;
52 [label="distance <= 2.865\nmse = 6.734\nsamples = 14417\nvalue = 22.966"] ;
51 -> 52 ;
53 [label="distance <= 2.615\nmse = 4.819\nsamples = 8917\nvalue = 21.885"] ;
52 -> 53 ;
54 [label="mse = 4.313\nsamples = 4495\nvalue = 21.131"] ;
53 -> 54 ;
55 [label="mse = 4.169\nsamples = 4422\nvalue = 22.651"] ;
53 -> 55 ;
56 [label="distance <= 3.225\nmse = 4.87\nsamples = 5500\nvalue = 24.719"] ;
52 -> 56 ;
57 [label="mse = 4.025\nsamples = 3572\nvalue = 24.249"] ;
56 -> 57 ;
58 [label="mse = 5.268\nsamples = 1928\nvalue = 25.59"] ;
56 -> 58 ;
59 [label="distance <= 5.11\nmse = 18.572\nsamples = 2841\nvalue = 31.101"] ;
51 -> 59 ;
60 [label="distance <= 4.425\nmse = 7.938\nsamples = 2182\nvalue = 29.49"] ;
59 -> 60 ;
61 [label="mse = 5.867\nsamples = 712\nvalue = 28.249"] ;
60 -> 61 ;
62 [label="mse = 7.833\nsamples = 1470\nvalue = 30.091"] ;
60 -> 62 ;
63 [label="destination=South Station <= 0.5\nmse = 16.746\nsamples = 659\nvalue = 36.434"] ;
59 -> 63 ;
64 [label="mse = 12.489\nsamples = 549\nvalue = 37.341"] ;
63 -> 64 ;
65 [label="mse = 13.419\nsamples = 110\nvalue = 31.909"] ;
63 -> 65 ;
66 [label="distance <= 2.175\nmse = 41.772\nsamples = 32749\nvalue = 23.047"] ;
2 -> 66 ;
67 [label="surge_multiplier <= 1.375\nmse = 10.989\nsamples = 16696\nvalue = 18.727"] ;
66 -> 67 ;
68 [label="distance <= 1.535\nmse = 6.264\nsamples = 16185\nvalue = 18.37"] ;
67 -> 68 ;
69 [label="surge_multiplier <= 1.125\nmse = 2.489\nsamples = 11603\nvalue = 17.232"] ;
68 -> 69 ;
70 [label="distance <= 1.205\nmse = 1.728\nsamples = 11170\nvalue = 17.064"] ;
69 -> 70 ;
71 [label="mse = 0.335\nsamples = 6706\nvalue = 16.616"] ;
70 -> 71 ;
72 [label="mse = 3.067\nsamples = 4464\nvalue = 17.736"] ;
70 -> 72 ;
73 [label="distance <= 1.275\nmse = 2.448\nsamples = 433\nvalue = 21.584"] ;
69 -> 73 ;
74 [label="mse = 2.249\nsamples = 262\nvalue = 21.023"] ;
73 -> 74 ;
75 [label="mse = 1.531\nsamples = 171\nvalue = 22.444"] ;
73 -> 75 ;
76 [label="surge_multiplier <= 1.125\nmse = 4.256\nsamples = 4582\nvalue = 21.25"] ;
68 -> 76 ;
77 [label="distance <= 1.755\nmse = 3.267\nsamples = 4371\nvalue = 21.043"] ;
76 -> 77 ;
78 [label="mse = 3.127\nsamples = 1853\nvalue = 20.201"] ;
77 -> 78 ;
79 [label="mse = 2.463\nsamples = 2518\nvalue = 21.663"] ;
77 -> 79 ;
80 [label="distance <= 1.755\nmse = 5.587\nsamples = 211\nvalue = 25.524"] ;
76 -> 80 ;
81 [label="mse = 4.911\nsamples = 98\nvalue = 24.505"] ;
80 -> 81 ;
82 [label="mse = 4.494\nsamples = 113\nvalue = 26.407"] ;
80 -> 82 ;
83 [label="surge_multiplier <= 1.625\nmse = 28.459\nsamples = 511\nvalue = 30.046"] ;
67 -> 83 ;
84 [label="distance <= 1.295\nmse = 12.409\nsamples = 236\nvalue = 26.288"] ;
83 -> 84 ;
85 [label="distance <= 1.1\nmse = 1.541\nsamples = 90\nvalue = 22.983"] ;
84 -> 85 ;
86 [label="mse = 0.377\nsamples = 63\nvalue = 22.611"] ;
85 -> 86 ;
87 [label="mse = 3.182\nsamples = 27\nvalue = 23.852"] ;
85 -> 87 ;
88 [label="distance <= 1.715\nmse = 8.225\nsamples = 146\nvalue = 28.325"] ;
84 -> 88 ;
89 [label="mse = 4.569\nsamples = 91\nvalue = 26.995"] ;
88 -> 89 ;
90 [label="mse = 6.495\nsamples = 55\nvalue = 30.527"] ;
88 -> 90 ;
91 [label="distance <= 1.305\nmse = 19.715\nsamples = 275\nvalue = 33.271"] ;
83 -> 91 ;
92 [label="surge_multiplier <= 1.875\nmse = 5.901\nsamples = 95\nvalue = 29.437"] ;
91 -> 92 ;
93 [label="mse = 1.488\nsamples = 49\nvalue = 27.459"] ;
92 -> 93 ;
94 [label="mse = 1.998\nsamples = 46\nvalue = 31.543"] ;
92 -> 94 ;
95 [label="surge_multiplier <= 1.875\nmse = 15.152\nsamples = 180\nvalue = 35.294"] ;
91 -> 95 ;
96 [label="mse = 11.331\nsamples = 75\nvalue = 33.073"] ;
95 -> 96 ;
97 [label="mse = 11.841\nsamples = 105\nvalue = 36.881"] ;
95 -> 97 ;
98 [label="surge_multiplier <= 1.375\nmse = 34.188\nsamples = 16053\nvalue = 27.54"] ;
66 -> 98 ;
99 [label="distance <= 3.565\nmse = 17.911\nsamples = 15304\nvalue = 26.735"] ;
98 -> 99 ;
100 [label="distance <= 2.775\nmse = 7.962\nsamples = 12902\nvalue = 25.388"] ;
99 -> 100 ;
101 [label="surge_multiplier <= 1.125\nmse = 4.502\nsamples = 5264\nvalue = 23.44"] ;
100 -> 101 ;
102 [label="mse = 2.889\nsamples = 4981\nvalue = 23.151"] ;
101 -> 102 ;
103 [label="mse = 5.561\nsamples = 283\nvalue = 28.525"] ;
101 -> 103 ;
104 [label="surge_multiplier <= 1.125\nmse = 5.929\nsamples = 7638\nvalue = 26.731"] ;
100 -> 104 ;
105 [label="mse = 4.04\nsamples = 7277\nvalue = 26.44"] ;
104 -> 105 ;
106 [label="mse = 8.003\nsamples = 361\nvalue = 32.589"] ;
104 -> 106 ;
107 [label="surge_multiplier <= 1.125\nmse = 9.25\nsamples = 2402\nvalue = 33.971"] ;
99 -> 107 ;
108 [label="distance <= 4.955\nmse = 6.19\nsamples = 2280\nvalue = 33.584"] ;
107 -> 108 ;
109 [label="mse = 2.995\nsamples = 1875\nvalue = 32.788"] ;
108 -> 109 ;
110 [label="mse = 4.458\nsamples = 405\nvalue = 37.27"] ;
108 -> 110 ;
111 [label="distance <= 5.025\nmse = 11.359\nsamples = 122\nvalue = 41.201"] ;
107 -> 111 ;
112 [label="mse = 8.05\nsamples = 111\nvalue = 40.694"] ;
111 -> 112 ;
113 [label="mse = 15.967\nsamples = 11\nvalue = 46.318"] ;
111 -> 113 ;
114 [label="distance <= 3.555\nmse = 82.931\nsamples = 749\nvalue = 43.99"] ;
98 -> 114 ;
115 [label="surge_multiplier <= 1.625\nmse = 51.811\nsamples = 623\nvalue = 41.459"] ;
114 -> 115 ;
116 [label="distance <= 2.785\nmse = 18.478\nsamples = 342\nvalue = 37.186"] ;
115 -> 116 ;
117 [label="mse = 7.86\nsamples = 157\nvalue = 34.0"] ;
116 -> 117 ;
118 [label="mse = 11.567\nsamples = 185\nvalue = 39.889"] ;
116 -> 118 ;
119 [label="distance <= 2.715\nmse = 43.102\nsamples = 281\nvalue = 46.66"] ;
115 -> 119 ;
120 [label="mse = 21.088\nsamples = 112\nvalue = 42.036"] ;
119 -> 120 ;
121 [label="mse = 34.127\nsamples = 169\nvalue = 49.725"] ;
119 -> 121 ;
122 [label="surge_multiplier <= 1.625\nmse = 48.53\nsamples = 126\nvalue = 56.504"] ;
114 -> 122 ;
123 [label="distance <= 4.82\nmse = 14.02\nsamples = 53\nvalue = 50.179"] ;
122 -> 123 ;
124 [label="mse = 12.547\nsamples = 48\nvalue = 49.677"] ;
123 -> 124 ;
125 [label="mse = 2.5\nsamples = 5\nvalue = 55.0"] ;
123 -> 125 ;
126 [label="surge_multiplier <= 1.875\nmse = 23.457\nsamples = 73\nvalue = 61.096"] ;
122 -> 126 ;
127 [label="mse = 12.797\nsamples = 40\nvalue = 57.625"] ;
126 -> 127 ;
128 [label="mse = 4.075\nsamples = 33\nvalue = 65.303"] ;
126 -> 128 ;
129 [label="distance <= 2.665\nmse = 23.484\nsamples = 35186\nvalue = 30.306"] ;
1 -> 129 ;
130 [label="distance <= 2.195\nmse = 5.887\nsamples = 23620\nvalue = 27.869"] ;
129 -> 130 ;
131 [label="distance <= 1.645\nmse = 3.276\nsamples = 17768\nvalue = 27.057"] ;
130 -> 131 ;
132 [label="source=Back Bay <= 0.5\nmse = 2.594\nsamples = 14310\nvalue = 26.765"] ;
131 -> 132 ;
133 [label="destination=Back Bay <= 0.5\nmse = 2.151\nsamples = 12950\nvalue = 26.917"] ;
132 -> 133 ;
134 [label="distance <= 1.375\nmse = 2.2\nsamples = 11519\nvalue = 27.003"] ;
133 -> 134 ;
135 [label="mse = 2.216\nsamples = 9415\nvalue = 26.931"] ;
134 -> 135 ;
136 [label="mse = 1.998\nsamples = 2104\nvalue = 27.327"] ;
134 -> 136 ;
137 [label="time_stamp <= 1544681684992.0\nmse = 1.228\nsamples = 1431\nvalue = 26.228"] ;
133 -> 137 ;
138 [label="mse = 1.438\nsamples = 927\nvalue = 26.282"] ;
137 -> 138 ;
139 [label="mse = 0.825\nsamples = 504\nvalue = 26.129"] ;
137 -> 139 ;
140 [label="distance <= 1.5\nmse = 4.476\nsamples = 1360\nvalue = 25.31"] ;
132 -> 140 ;
141 [label="distance <= 1.16\nmse = 4.472\nsamples = 1334\nvalue = 25.346"] ;
140 -> 141 ;
142 [label="mse = 5.523\nsamples = 210\nvalue = 25.717"] ;
141 -> 142 ;
143 [label="mse = 4.245\nsamples = 1124\nvalue = 25.277"] ;
141 -> 143 ;
144 [label="time_stamp <= 1543779975168.0\nmse = 1.172\nsamples = 26\nvalue = 23.462"] ;
140 -> 144 ;
145 [label="mse = 1.76\nsamples = 15\nvalue = 23.8"] ;
144 -> 145 ;
146 [label="mse = 0.0\nsamples = 11\nvalue = 23.0"] ;
144 -> 146 ;
147 [label="destination=Back Bay <= 0.5\nmse = 4.282\nsamples = 3458\nvalue = 28.265"] ;
131 -> 147 ;
148 [label="destination=Northeastern University <= 0.5\nmse = 4.236\nsamples = 3069\nvalue = 28.097"] ;
147 -> 148 ;
149 [label="source=North End <= 0.5\nmse = 3.39\nsamples = 2277\nvalue = 28.289"] ;
148 -> 149 ;
150 [label="mse = 3.173\nsamples = 2038\nvalue = 28.183"] ;
149 -> 150 ;
151 [label="mse = 4.315\nsamples = 239\nvalue = 29.201"] ;
149 -> 151 ;
152 [label="distance <= 2.085\nmse = 6.255\nsamples = 792\nvalue = 27.544"] ;
148 -> 152 ;
153 [label="mse = 6.118\nsamples = 782\nvalue = 27.499"] ;
152 -> 153 ;
154 [label="mse = 4.522\nsamples = 10\nvalue = 31.05"] ;
152 -> 154 ;
155 [label="distance <= 1.835\nmse = 2.666\nsamples = 389\nvalue = 29.591"] ;
147 -> 155 ;
156 [label="source=Haymarket Square <= 0.5\nmse = 1.886\nsamples = 136\nvalue = 28.548"] ;
155 -> 156 ;
157 [label="mse = 0.888\nsamples = 21\nvalue = 27.071"] ;
156 -> 157 ;
158 [label="mse = 1.597\nsamples = 115\nvalue = 28.817"] ;
156 -> 158 ;
159 [label="distance <= 2.095\nmse = 2.185\nsamples = 253\nvalue = 30.152"] ;
155 -> 159 ;
160 [label="mse = 2.044\nsamples = 250\nvalue = 30.13"] ;
159 -> 160 ;
161 [label="mse = 10.5\nsamples = 3\nvalue = 32.0"] ;
159 -> 161 ;
162 [label="source=Beacon Hill <= 0.5\nmse = 5.732\nsamples = 5852\nvalue = 30.334"] ;
130 -> 162 ;
163 [label="source=North End <= 0.5\nmse = 5.214\nsamples = 4343\nvalue = 30.828"] ;
162 -> 163 ;
164 [label="destination=Beacon Hill <= 0.5\nmse = 5.044\nsamples = 4109\nvalue = 30.711"] ;
163 -> 164 ;
165 [label="destination=North Station <= 0.5\nmse = 5.756\nsamples = 2688\nvalue = 31.016"] ;
164 -> 165 ;
166 [label="mse = 5.945\nsamples = 2419\nvalue = 31.178"] ;
165 -> 166 ;
167 [label="mse = 1.683\nsamples = 269\nvalue = 29.556"] ;
165 -> 167 ;
168 [label="source=Boston University <= 0.5\nmse = 3.19\nsamples = 1421\nvalue = 30.135"] ;
164 -> 168 ;
169 [label="mse = 3.17\nsamples = 1411\nvalue = 30.121"] ;
168 -> 169 ;
170 [label="mse = 1.953\nsamples = 10\nvalue = 32.15"] ;
168 -> 170 ;
171 [label="distance <= 2.35\nmse = 3.767\nsamples = 234\nvalue = 32.874"] ;
163 -> 171 ;
172 [label="distance <= 2.335\nmse = 2.355\nsamples = 142\nvalue = 31.979"] ;
171 -> 172 ;
173 [label="mse = 3.988\nsamples = 42\nvalue = 33.024"] ;
172 -> 173 ;
174 [label="mse = 1.018\nsamples = 100\nvalue = 31.54"] ;
172 -> 174 ;
175 [label="distance <= 2.645\nmse = 2.802\nsamples = 92\nvalue = 34.255"] ;
171 -> 175 ;
176 [label="mse = 2.744\nsamples = 90\nvalue = 34.206"] ;
175 -> 176 ;
177 [label="mse = 0.25\nsamples = 2\nvalue = 36.5"] ;
175 -> 177 ;
178 [label="distance <= 2.49\nmse = 4.504\nsamples = 1509\nvalue = 28.914"] ;
162 -> 178 ;
179 [label="distance <= 2.325\nmse = 4.364\nsamples = 1410\nvalue = 28.81"] ;
178 -> 179 ;
180 [label="distance <= 2.315\nmse = 4.974\nsamples = 894\nvalue = 28.624"] ;
179 -> 180 ;
181 [label="mse = 5.288\nsamples = 499\nvalue = 28.837"] ;
180 -> 181 ;
182 [label="mse = 4.448\nsamples = 395\nvalue = 28.354"] ;
180 -> 182 ;
183 [label="destination=North End <= 0.5\nmse = 3.143\nsamples = 516\nvalue = 29.132"] ;
179 -> 183 ;
184 [label="mse = 2.763\nsamples = 493\nvalue = 29.055"] ;
183 -> 184 ;
185 [label="mse = 8.431\nsamples = 23\nvalue = 30.783"] ;
183 -> 185 ;
186 [label="time_stamp <= 1543737507840.0\nmse = 4.148\nsamples = 99\nvalue = 30.394"] ;
178 -> 186 ;
187 [label="time_stamp <= 1543647395840.0\nmse = 3.73\nsamples = 43\nvalue = 30.047"] ;
186 -> 187 ;
188 [label="mse = 3.601\nsamples = 38\nvalue = 30.276"] ;
187 -> 188 ;
189 [label="mse = 1.26\nsamples = 5\nvalue = 28.3"] ;
187 -> 189 ;
190 [label="time_stamp <= 1543757758464.0\nmse = 4.305\nsamples = 56\nvalue = 30.661"] ;
186 -> 190 ;
191 [label="mse = 0.0\nsamples = 1\nvalue = 34.0"] ;
190 -> 191 ;
192 [label="mse = 4.176\nsamples = 55\nvalue = 30.6"] ;
190 -> 192 ;
193 [label="distance <= 3.6\nmse = 22.525\nsamples = 11566\nvalue = 35.282"] ;
129 -> 193 ;
194 [label="distance <= 3.055\nmse = 7.531\nsamples = 8753\nvalue = 33.349"] ;
193 -> 194 ;
195 [label="distance <= 2.945\nmse = 6.08\nsamples = 5170\nvalue = 32.477"] ;
194 -> 195 ;
196 [label="destination=Back Bay <= 0.5\nmse = 5.989\nsamples = 3308\nvalue = 32.028"] ;
195 -> 196 ;
197 [label="destination=North End <= 0.5\nmse = 5.543\nsamples = 3128\nvalue = 31.85"] ;
196 -> 197 ;
198 [label="mse = 5.284\nsamples = 3026\nvalue = 31.792"] ;
197 -> 198 ;
199 [label="mse = 10.157\nsamples = 102\nvalue = 33.569"] ;
197 -> 199 ;
200 [label="time_stamp <= 1543288979456.0\nmse = 3.624\nsamples = 180\nvalue = 35.122"] ;
196 -> 200 ;
201 [label="mse = 1.891\nsamples = 16\nvalue = 36.375"] ;
200 -> 201 ;
202 [label="mse = 3.625\nsamples = 164\nvalue = 35.0"] ;
200 -> 202 ;
203 [label="source=Financial District <= 0.5\nmse = 5.25\nsamples = 1862\nvalue = 33.274"] ;
195 -> 203 ;
204 [label="destination=North Station <= 0.5\nmse = 5.199\nsamples = 1855\nvalue = 33.259"] ;
203 -> 204 ;
205 [label="mse = 5.147\nsamples = 1848\nvalue = 33.246"] ;
204 -> 205 ;
206 [label="mse = 7.337\nsamples = 7\nvalue = 36.643"] ;
204 -> 206 ;
207 [label="time_stamp <= 1543506821120.0\nmse = 3.204\nsamples = 7\nvalue = 37.214"] ;
203 -> 207 ;
208 [label="mse = 1.562\nsamples = 2\nvalue = 35.25"] ;
207 -> 208 ;
209 [label="mse = 1.7\nsamples = 5\nvalue = 38.0"] ;
207 -> 209 ;
210 [label="distance <= 3.225\nmse = 6.944\nsamples = 3583\nvalue = 34.607"] ;
194 -> 210 ;
211 [label="destination=Financial District <= 0.5\nmse = 6.28\nsamples = 1656\nvalue = 34.037"] ;
210 -> 211 ;
212 [label="source=West End <= 0.5\nmse = 5.973\nsamples = 1628\nvalue = 33.977"] ;
211 -> 212 ;
213 [label="mse = 5.06\nsamples = 1153\nvalue = 34.199"] ;
212 -> 213 ;
214 [label="mse = 7.78\nsamples = 475\nvalue = 33.439"] ;
212 -> 214 ;
215 [label="distance <= 3.195\nmse = 11.713\nsamples = 28\nvalue = 37.536"] ;
211 -> 215 ;
216 [label="mse = 10.88\nsamples = 22\nvalue = 38.227"] ;
215 -> 216 ;
217 [label="mse = 6.583\nsamples = 6\nvalue = 35.0"] ;
215 -> 217 ;
218 [label="destination=South Station <= 0.5\nmse = 6.996\nsamples = 1927\nvalue = 35.097"] ;
210 -> 218 ;
219 [label="destination=Financial District <= 0.5\nmse = 7.339\nsamples = 1706\nvalue = 35.261"] ;
218 -> 219 ;
220 [label="mse = 6.906\nsamples = 1690\nvalue = 35.221"] ;
219 -> 220 ;
221 [label="mse = 35.465\nsamples = 16\nvalue = 39.438"] ;
219 -> 221 ;
222 [label="distance <= 3.455\nmse = 2.533\nsamples = 221\nvalue = 33.83"] ;
218 -> 222 ;
223 [label="mse = 2.472\nsamples = 218\nvalue = 33.805"] ;
222 -> 223 ;
224 [label="mse = 3.556\nsamples = 3\nvalue = 35.667"] ;
222 -> 224 ;
225 [label="distance <= 5.04\nmse = 21.338\nsamples = 2813\nvalue = 41.3"] ;
193 -> 225 ;
226 [label="source=Boston University <= 0.5\nmse = 9.406\nsamples = 2151\nvalue = 39.655"] ;
225 -> 226 ;
227 [label="distance <= 3.96\nmse = 9.623\nsamples = 1689\nvalue = 39.174"] ;
226 -> 227 ;
228 [label="distance <= 3.73\nmse = 5.675\nsamples = 221\nvalue = 37.448"] ;
227 -> 228 ;
229 [label="mse = 3.166\nsamples = 143\nvalue = 37.818"] ;
228 -> 229 ;
230 [label="mse = 9.562\nsamples = 78\nvalue = 36.769"] ;
228 -> 230 ;
231 [label="source=Financial District <= 0.5\nmse = 9.702\nsamples = 1468\nvalue = 39.434"] ;
227 -> 231 ;
232 [label="mse = 6.055\nsamples = 812\nvalue = 39.129"] ;
231 -> 232 ;
233 [label="mse = 13.957\nsamples = 656\nvalue = 39.812"] ;
231 -> 233 ;
234 [label="distance <= 3.97\nmse = 4.677\nsamples = 462\nvalue = 41.412"] ;
226 -> 234 ;
235 [label="distance <= 3.715\nmse = 3.185\nsamples = 46\nvalue = 39.5"] ;
234 -> 235 ;
236 [label="mse = 6.375\nsamples = 4\nvalue = 37.5"] ;
235 -> 236 ;
237 [label="mse = 2.464\nsamples = 42\nvalue = 39.69"] ;
235 -> 237 ;
238 [label="distance <= 3.985\nmse = 4.393\nsamples = 416\nvalue = 41.624"] ;
234 -> 238 ;
239 [label="mse = 8.228\nsamples = 9\nvalue = 43.278"] ;
238 -> 239 ;
240 [label="mse = 4.246\nsamples = 407\nvalue = 41.587"] ;
238 -> 240 ;
241 [label="distance <= 6.55\nmse = 22.771\nsamples = 662\nvalue = 46.643"] ;
225 -> 241 ;
242 [label="distance <= 5.695\nmse = 15.574\nsamples = 441\nvalue = 45.322"] ;
241 -> 242 ;
243 [label="source=Theatre District <= 0.5\nmse = 15.773\nsamples = 226\nvalue = 46.489"] ;
242 -> 243 ;
244 [label="mse = 11.798\nsamples = 224\nvalue = 46.388"] ;
243 -> 244 ;
245 [label="mse = 333.062\nsamples = 2\nvalue = 57.75"] ;
243 -> 245 ;
246 [label="source=Financial District <= 0.5\nmse = 12.429\nsamples = 215\nvalue = 44.095"] ;
242 -> 246 ;
247 [label="mse = 13.624\nsamples = 114\nvalue = 43.447"] ;
246 -> 247 ;
248 [label="mse = 10.071\nsamples = 101\nvalue = 44.827"] ;
246 -> 248 ;
249 [label="source=Boston University <= 0.5\nmse = 26.704\nsamples = 221\nvalue = 49.278"] ;
241 -> 249 ;
250 [label="source=Northeastern University <= 0.5\nmse = 25.649\nsamples = 207\nvalue = 48.92"] ;
249 -> 250 ;
251 [label="mse = 26.65\nsamples = 181\nvalue = 49.285"] ;
250 -> 251 ;
252 [label="mse = 11.333\nsamples = 26\nvalue = 46.385"] ;
250 -> 252 ;
253 [label="time_stamp <= 1545098559488.0\nmse = 12.388\nsamples = 14\nvalue = 54.571"] ;
249 -> 253 ;
254 [label="mse = 10.287\nsamples = 13\nvalue = 55.038"] ;
253 -> 254 ;
255 [label="mse = 0.0\nsamples = 1\nvalue = 48.5"] ;
253 -> 255 ;
256 [label="distance <= 2.495\nmse = 51.779\nsamples = 32653\nvalue = 32.317"] ;
0 -> 256 [labeldistance=2.5, labelangle=-45, headlabel="False"] ;
257 [label="surge_multiplier <= 1.375\nmse = 19.66\nsamples = 20389\nvalue = 28.969"] ;
256 -> 257 ;
258 [label="distance <= 1.775\nmse = 7.221\nsamples = 19698\nvalue = 28.346"] ;
257 -> 258 ;
259 [label="surge_multiplier <= 1.125\nmse = 3.123\nsamples = 13672\nvalue = 27.279"] ;
258 -> 259 ;
260 [label="distance <= 1.495\nmse = 1.317\nsamples = 13113\nvalue = 27.005"] ;
259 -> 260 ;
261 [label="destination=South Station <= 0.5\nmse = 0.642\nsamples = 10407\nvalue = 26.779"] ;
260 -> 261 ;
262 [label="distance <= 1.485\nmse = 0.587\nsamples = 9166\nvalue = 26.755"] ;
261 -> 262 ;
263 [label="mse = 0.568\nsamples = 9018\nvalue = 26.752"] ;
262 -> 263 ;
264 [label="mse = 1.686\nsamples = 148\nvalue = 26.956"] ;
262 -> 264 ;
265 [label="distance <= 1.035\nmse = 1.018\nsamples = 1241\nvalue = 26.95"] ;
261 -> 265 ;
266 [label="mse = 0.562\nsamples = 876\nvalue = 26.745"] ;
265 -> 266 ;
267 [label="mse = 1.766\nsamples = 365\nvalue = 27.444"] ;
265 -> 267 ;
268 [label="destination=Back Bay <= 0.5\nmse = 2.956\nsamples = 2706\nvalue = 27.876"] ;
260 -> 268 ;
269 [label="destination=Beacon Hill <= 0.5\nmse = 3.063\nsamples = 2402\nvalue = 28.023"] ;
268 -> 269 ;
270 [label="mse = 2.891\nsamples = 2296\nvalue = 27.951"] ;
269 -> 270 ;
271 [label="mse = 4.299\nsamples = 106\nvalue = 29.571"] ;
269 -> 271 ;
272 [label="distance <= 1.71\nmse = 0.594\nsamples = 304\nvalue = 26.719"] ;
268 -> 272 ;
273 [label="mse = 0.561\nsamples = 301\nvalue = 26.708"] ;
272 -> 273 ;
274 [label="mse = 2.722\nsamples = 3\nvalue = 27.833"] ;
272 -> 274 ;
275 [label="distance <= 1.685\nmse = 2.486\nsamples = 559\nvalue = 33.701"] ;
259 -> 275 ;
276 [label="distance <= 1.485\nmse = 1.133\nsamples = 490\nvalue = 33.373"] ;
275 -> 276 ;
277 [label="source=Back Bay <= 0.5\nmse = 0.684\nsamples = 403\nvalue = 33.254"] ;
276 -> 277 ;
278 [label="mse = 0.63\nsamples = 316\nvalue = 33.206"] ;
277 -> 278 ;
279 [label="mse = 0.84\nsamples = 87\nvalue = 33.431"] ;
277 -> 279 ;
280 [label="source=Beacon Hill <= 0.5\nmse = 2.842\nsamples = 87\nvalue = 33.925"] ;
276 -> 280 ;
281 [label="mse = 1.271\nsamples = 69\nvalue = 33.522"] ;
280 -> 281 ;
282 [label="mse = 5.846\nsamples = 18\nvalue = 35.472"] ;
280 -> 282 ;
283 [label="distance <= 1.715\nmse = 5.912\nsamples = 69\nvalue = 36.029"] ;
275 -> 283 ;
284 [label="source=North Station <= 0.5\nmse = 1.945\nsamples = 17\nvalue = 37.765"] ;
283 -> 284 ;
285 [label="mse = 1.125\nsamples = 16\nvalue = 38.0"] ;
284 -> 285 ;
286 [label="mse = 0.0\nsamples = 1\nvalue = 34.0"] ;
284 -> 286 ;
287 [label="time_stamp <= 1544990883840.0\nmse = 5.902\nsamples = 52\nvalue = 35.462"] ;
283 -> 287 ;
288 [label="mse = 5.267\nsamples = 42\nvalue = 34.964"] ;
287 -> 288 ;
289 [label="mse = 3.173\nsamples = 10\nvalue = 37.55"] ;
287 -> 289 ;
290 [label="surge_multiplier <= 1.125\nmse = 8.081\nsamples = 6026\nvalue = 30.765"] ;
258 -> 290 ;
291 [label="distance <= 2.185\nmse = 5.2\nsamples = 5728\nvalue = 30.386"] ;
290 -> 291 ;
292 [label="source=Theatre District <= 0.5\nmse = 5.038\nsamples = 2433\nvalue = 29.597"] ;
291 -> 292 ;
293 [label="destination=Back Bay <= 0.5\nmse = 4.731\nsamples = 2114\nvalue = 29.377"] ;
292 -> 293 ;
294 [label="mse = 4.293\nsamples = 1797\nvalue = 29.176"] ;
293 -> 294 ;
295 [label="mse = 5.685\nsamples = 317\nvalue = 30.517"] ;
293 -> 295 ;
296 [label="distance <= 1.845\nmse = 4.62\nsamples = 319\nvalue = 31.058"] ;
292 -> 296 ;
297 [label="mse = 3.06\nsamples = 38\nvalue = 29.303"] ;
296 -> 297 ;
298 [label="mse = 4.358\nsamples = 281\nvalue = 31.295"] ;
296 -> 298 ;
299 [label="source=Beacon Hill <= 0.5\nmse = 4.521\nsamples = 3295\nvalue = 30.968"] ;
291 -> 299 ;
300 [label="destination=Beacon Hill <= 0.5\nmse = 4.896\nsamples = 2004\nvalue = 31.376"] ;
299 -> 300 ;
301 [label="mse = 4.971\nsamples = 1066\nvalue = 31.996"] ;
300 -> 301 ;
302 [label="mse = 3.877\nsamples = 938\nvalue = 30.672"] ;
300 -> 302 ;
303 [label="destination=Northeastern University <= 0.5\nmse = 3.279\nsamples = 1291\nvalue = 30.334"] ;
299 -> 303 ;
304 [label="mse = 3.214\nsamples = 1084\nvalue = 30.129"] ;
303 -> 304 ;
305 [label="mse = 2.24\nsamples = 207\nvalue = 31.411"] ;
303 -> 305 ;
306 [label="distance <= 2.165\nmse = 7.481\nsamples = 298\nvalue = 38.06"] ;
290 -> 306 ;
307 [label="source=Theatre District <= 0.5\nmse = 7.257\nsamples = 107\nvalue = 36.551"] ;
306 -> 307 ;
308 [label="destination=Northeastern University <= 0.5\nmse = 6.591\nsamples = 90\nvalue = 36.183"] ;
307 -> 308 ;
309 [label="mse = 6.238\nsamples = 86\nvalue = 36.355"] ;
308 -> 309 ;
310 [label="mse = 0.0\nsamples = 4\nvalue = 32.5"] ;
308 -> 310 ;
311 [label="distance <= 2.155\nmse = 6.265\nsamples = 17\nvalue = 38.5"] ;
307 -> 311 ;
312 [label="mse = 4.301\nsamples = 14\nvalue = 39.143"] ;
311 -> 312 ;
313 [label="mse = 4.5\nsamples = 3\nvalue = 35.5"] ;
311 -> 313 ;
314 [label="destination=Back Bay <= 0.5\nmse = 5.617\nsamples = 191\nvalue = 38.906"] ;
306 -> 314 ;
315 [label="source=Back Bay <= 0.5\nmse = 3.949\nsamples = 180\nvalue = 38.633"] ;
314 -> 315 ;
316 [label="mse = 2.365\nsamples = 154\nvalue = 38.373"] ;
315 -> 316 ;
317 [label="mse = 10.557\nsamples = 26\nvalue = 40.173"] ;
315 -> 317 ;
318 [label="source=South Station <= 0.5\nmse = 11.822\nsamples = 11\nvalue = 43.364"] ;
314 -> 318 ;
319 [label="mse = 0.056\nsamples = 3\nvalue = 38.333"] ;
318 -> 319 ;
320 [label="mse = 3.188\nsamples = 8\nvalue = 45.25"] ;
318 -> 320 ;
321 [label="surge_multiplier <= 1.625\nmse = 47.052\nsamples = 691\nvalue = 46.749"] ;
257 -> 321 ;
322 [label="distance <= 1.96\nmse = 15.571\nsamples = 353\nvalue = 41.513"] ;
321 -> 322 ;
323 [label="distance <= 1.67\nmse = 4.398\nsamples = 217\nvalue = 39.081"] ;
322 -> 323 ;
324 [label="destination=South Station <= 0.5\nmse = 2.463\nsamples = 184\nvalue = 38.688"] ;
323 -> 324 ;
325 [label="distance <= 1.545\nmse = 0.671\nsamples = 144\nvalue = 38.378"] ;
324 -> 325 ;
326 [label="mse = 0.331\nsamples = 133\nvalue = 38.297"] ;
325 -> 326 ;
327 [label="mse = 3.731\nsamples = 11\nvalue = 39.364"] ;
325 -> 327 ;
328 [label="distance <= 1.0\nmse = 7.335\nsamples = 40\nvalue = 39.8"] ;
324 -> 328 ;
329 [label="mse = 0.062\nsamples = 24\nvalue = 38.271"] ;
328 -> 329 ;
330 [label="mse = 9.476\nsamples = 16\nvalue = 42.094"] ;
328 -> 330 ;
331 [label="distance <= 1.695\nmse = 9.517\nsamples = 33\nvalue = 41.273"] ;
323 -> 331 ;
332 [label="mse = 0.0\nsamples = 1\nvalue = 47.5"] ;
331 -> 332 ;
333 [label="time_stamp <= 1545016180736.0\nmse = 8.564\nsamples = 32\nvalue = 41.078"] ;
331 -> 333 ;
334 [label="mse = 8.702\nsamples = 28\nvalue = 41.446"] ;
333 -> 334 ;
335 [label="mse = 0.0\nsamples = 4\nvalue = 38.5"] ;
333 -> 335 ;
336 [label="distance <= 2.16\nmse = 8.902\nsamples = 136\nvalue = 45.393"] ;
322 -> 336 ;
337 [label="destination=South Station <= 0.5\nmse = 8.562\nsamples = 33\nvalue = 43.773"] ;
336 -> 337 ;
338 [label="destination=Haymarket Square <= 0.5\nmse = 6.667\nsamples = 27\nvalue = 44.5"] ;
337 -> 338 ;
339 [label="mse = 5.485\nsamples = 26\nvalue = 44.731"] ;
338 -> 339 ;
340 [label="mse = 0.0\nsamples = 1\nvalue = 38.5"] ;
338 -> 340 ;
341 [label="distance <= 2.045\nmse = 4.0\nsamples = 6\nvalue = 40.5"] ;
337 -> 341 ;
342 [label="mse = 0.0\nsamples = 1\nvalue = 38.5"] ;
341 -> 342 ;
343 [label="mse = 3.84\nsamples = 5\nvalue = 40.9"] ;
341 -> 343 ;
344 [label="time_stamp <= 1545131524096.0\nmse = 7.9\nsamples = 103\nvalue = 45.913"] ;
336 -> 344 ;
345 [label="source=South Station <= 0.5\nmse = 7.16\nsamples = 102\nvalue = 45.824"] ;
344 -> 345 ;
346 [label="mse = 6.294\nsamples = 93\nvalue = 45.586"] ;
345 -> 346 ;
347 [label="mse = 9.506\nsamples = 9\nvalue = 48.278"] ;
345 -> 347 ;
348 [label="mse = 0.0\nsamples = 1\nvalue = 55.0"] ;
344 -> 348 ;
349 [label="surge_multiplier <= 1.875\nmse = 21.391\nsamples = 338\nvalue = 52.217"] ;
321 -> 349 ;
350 [label="distance <= 2.13\nmse = 17.234\nsamples = 174\nvalue = 49.466"] ;
349 -> 350 ;
351 [label="distance <= 1.545\nmse = 7.099\nsamples = 127\nvalue = 47.575"] ;
350 -> 351 ;
352 [label="destination=South Station <= 0.5\nmse = 3.133\nsamples = 88\nvalue = 47.017"] ;
351 -> 352 ;
353 [label="mse = 0.984\nsamples = 71\nvalue = 46.627"] ;
352 -> 353 ;
354 [label="mse = 8.817\nsamples = 17\nvalue = 48.647"] ;
352 -> 354 ;
355 [label="distance <= 1.56\nmse = 13.761\nsamples = 39\nvalue = 48.833"] ;
351 -> 355 ;
356 [label="mse = 0.0\nsamples = 1\nvalue = 55.0"] ;
355 -> 356 ;
357 [label="mse = 13.096\nsamples = 38\nvalue = 48.671"] ;
355 -> 357 ;
358 [label="source=Back Bay <= 0.5\nmse = 8.861\nsamples = 47\nvalue = 54.574"] ;
350 -> 358 ;
359 [label="distance <= 2.385\nmse = 5.363\nsamples = 36\nvalue = 53.889"] ;
358 -> 359 ;
360 [label="mse = 5.796\nsamples = 17\nvalue = 52.794"] ;
359 -> 360 ;
361 [label="mse = 2.943\nsamples = 19\nvalue = 54.868"] ;
359 -> 361 ;
362 [label="distance <= 2.295\nmse = 13.74\nsamples = 11\nvalue = 56.818"] ;
358 -> 362 ;
363 [label="mse = 14.062\nsamples = 6\nvalue = 58.75"] ;
362 -> 363 ;
364 [label="mse = 3.5\nsamples = 5\nvalue = 54.5"] ;
362 -> 364 ;
365 [label="distance <= 1.955\nmse = 9.242\nsamples = 164\nvalue = 55.137"] ;
349 -> 365 ;
366 [label="distance <= 1.275\nmse = 3.874\nsamples = 129\nvalue = 54.205"] ;
365 -> 366 ;
367 [label="time_stamp <= 1543840989184.0\nmse = 1.554\nsamples = 41\nvalue = 53.659"] ;
366 -> 367 ;
368 [label="mse = 1.276\nsamples = 21\nvalue = 53.214"] ;
367 -> 368 ;
369 [label="mse = 1.422\nsamples = 20\nvalue = 54.125"] ;
367 -> 369 ;
370 [label="distance <= 1.365\nmse = 4.751\nsamples = 88\nvalue = 54.46"] ;
366 -> 370 ;
371 [label="mse = 23.214\nsamples = 7\nvalue = 57.5"] ;
370 -> 371 ;
372 [label="mse = 2.288\nsamples = 81\nvalue = 54.198"] ;
370 -> 372 ;
373 [label="source=Beacon Hill <= 0.5\nmse = 14.031\nsamples = 35\nvalue = 58.571"] ;
365 -> 373 ;
374 [label="time_stamp <= 1543292321792.0\nmse = 13.46\nsamples = 25\nvalue = 59.8"] ;
373 -> 374 ;
375 [label="mse = 0.0\nsamples = 1\nvalue = 65.0"] ;
374 -> 375 ;
376 [label="mse = 12.847\nsamples = 24\nvalue = 59.583"] ;
374 -> 376 ;
377 [label="destination=Haymarket Square <= 0.5\nmse = 2.25\nsamples = 10\nvalue = 55.5"] ;
373 -> 377 ;
378 [label="mse = 1.389\nsamples = 9\nvalue = 55.833"] ;
377 -> 378 ;
379 [label="mse = 0.0\nsamples = 1\nvalue = 52.5"] ;
377 -> 379 ;
380 [label="surge_multiplier <= 1.375\nmse = 55.563\nsamples = 12264\nvalue = 37.883"] ;
256 -> 380 ;
381 [label="distance <= 3.585\nmse = 22.732\nsamples = 11672\nvalue = 36.684"] ;
380 -> 381 ;
382 [label="surge_multiplier <= 1.125\nmse = 10.562\nsamples = 9301\nvalue = 34.994"] ;
381 -> 382 ;
383 [label="distance <= 3.155\nmse = 7.307\nsamples = 8861\nvalue = 34.607"] ;
382 -> 383 ;
384 [label="distance <= 2.775\nmse = 5.561\nsamples = 5896\nvalue = 33.759"] ;
383 -> 384 ;
385 [label="destination=Back Bay <= 0.5\nmse = 4.684\nsamples = 1644\nvalue = 32.53"] ;
384 -> 385 ;
386 [label="mse = 3.556\nsamples = 1497\nvalue = 32.248"] ;
385 -> 386 ;
387 [label="mse = 7.118\nsamples = 147\nvalue = 35.401"] ;
385 -> 387 ;
388 [label="destination=West End <= 0.5\nmse = 5.09\nsamples = 4252\nvalue = 34.234"] ;
384 -> 388 ;
389 [label="mse = 5.26\nsamples = 3087\nvalue = 34.563"] ;
388 -> 389 ;
390 [label="mse = 3.589\nsamples = 1165\nvalue = 33.361"] ;
388 -> 390 ;
391 [label="distance <= 3.245\nmse = 6.505\nsamples = 2965\nvalue = 36.294"] ;
383 -> 391 ;
392 [label="source=North Station <= 0.5\nmse = 6.698\nsamples = 1291\nvalue = 35.524"] ;
391 -> 392 ;
393 [label="mse = 6.972\nsamples = 856\nvalue = 36.047"] ;
392 -> 393 ;
394 [label="mse = 4.567\nsamples = 435\nvalue = 34.497"] ;
392 -> 394 ;
395 [label="destination=Financial District <= 0.5\nmse = 5.547\nsamples = 1674\nvalue = 36.887"] ;
391 -> 395 ;
396 [label="mse = 5.301\nsamples = 1630\nvalue = 36.806"] ;
395 -> 396 ;
397 [label="mse = 5.501\nsamples = 44\nvalue = 39.875"] ;
395 -> 397 ;
398 [label="distance <= 2.885\nmse = 12.402\nsamples = 440\nvalue = 42.784"] ;
382 -> 398 ;
399 [label="destination=Beacon Hill <= 0.5\nmse = 8.11\nsamples = 153\nvalue = 40.451"] ;
398 -> 399 ;
400 [label="time_stamp <= 1543402029056.0\nmse = 8.848\nsamples = 116\nvalue = 41.034"] ;
399 -> 400 ;
401 [label="mse = 0.062\nsamples = 10\nvalue = 38.25"] ;
400 -> 401 ;
402 [label="mse = 8.876\nsamples = 106\nvalue = 41.297"] ;
400 -> 402 ;
403 [label="time_stamp <= 1543369457664.0\nmse = 1.384\nsamples = 37\nvalue = 38.622"] ;
399 -> 403 ;
404 [label="mse = 3.556\nsamples = 3\nvalue = 41.167"] ;
403 -> 404 ;
405 [label="mse = 0.57\nsamples = 34\nvalue = 38.397"] ;
403 -> 405 ;
406 [label="destination=Financial District <= 0.5\nmse = 10.241\nsamples = 287\nvalue = 44.028"] ;
398 -> 406 ;
407 [label="distance <= 3.195\nmse = 8.328\nsamples = 279\nvalue = 43.794"] ;
406 -> 407 ;
408 [label="mse = 6.203\nsamples = 164\nvalue = 43.104"] ;
407 -> 408 ;
409 [label="mse = 9.71\nsamples = 115\nvalue = 44.778"] ;
407 -> 409 ;
410 [label="time_stamp <= 1543535198208.0\nmse = 8.496\nsamples = 8\nvalue = 52.188"] ;
406 -> 410 ;
411 [label="mse = 5.556\nsamples = 3\nvalue = 49.167"] ;
410 -> 411 ;
412 [label="mse = 1.5\nsamples = 5\nvalue = 54.0"] ;
410 -> 412 ;
413 [label="surge_multiplier <= 1.125\nmse = 15.318\nsamples = 2371\nvalue = 43.313"] ;
381 -> 413 ;
414 [label="distance <= 4.765\nmse = 9.105\nsamples = 2251\nvalue = 42.733"] ;
413 -> 414 ;
415 [label="source=Northeastern University <= 0.5\nmse = 7.011\nsamples = 1823\nvalue = 41.989"] ;
414 -> 415 ;
416 [label="source=Theatre District <= 0.5\nmse = 6.65\nsamples = 1519\nvalue = 42.308"] ;
415 -> 416 ;
417 [label="mse = 6.716\nsamples = 1359\nvalue = 42.144"] ;
416 -> 417 ;
418 [label="mse = 3.922\nsamples = 160\nvalue = 43.7"] ;
416 -> 418 ;
419 [label="distance <= 4.195\nmse = 5.768\nsamples = 304\nvalue = 40.396"] ;
415 -> 419 ;
420 [label="mse = 5.865\nsamples = 215\nvalue = 41.04"] ;
419 -> 420 ;
421 [label="mse = 2.121\nsamples = 89\nvalue = 38.843"] ;
419 -> 421 ;
422 [label="distance <= 5.66\nmse = 5.61\nsamples = 428\nvalue = 45.904"] ;
414 -> 422 ;
423 [label="distance <= 4.975\nmse = 4.789\nsamples = 420\nvalue = 45.785"] ;
422 -> 423 ;
424 [label="mse = 2.358\nsamples = 64\nvalue = 44.219"] ;
423 -> 424 ;
425 [label="mse = 4.706\nsamples = 356\nvalue = 46.066"] ;
423 -> 425 ;
426 [label="distance <= 6.225\nmse = 8.496\nsamples = 8\nvalue = 52.188"] ;
422 -> 426 ;
427 [label="mse = 6.122\nsamples = 7\nvalue = 52.857"] ;
426 -> 427 ;
428 [label="mse = 0.0\nsamples = 1\nvalue = 47.5"] ;
426 -> 428 ;
429 [label="distance <= 4.945\nmse = 7.309\nsamples = 120\nvalue = 54.188"] ;
413 -> 429 ;
430 [label="source=Northeastern University <= 0.5\nmse = 3.509\nsamples = 109\nvalue = 53.693"] ;
429 -> 430 ;
431 [label="time_stamp <= 1545093316608.0\nmse = 2.182\nsamples = 92\nvalue = 53.995"] ;
430 -> 431 ;
432 [label="mse = 2.112\nsamples = 87\nvalue = 53.908"] ;
431 -> 432 ;
433 [label="mse = 1.0\nsamples = 5\nvalue = 55.5"] ;
431 -> 433 ;
434 [label="distance <= 4.12\nmse = 7.526\nsamples = 17\nvalue = 52.059"] ;
430 -> 434 ;
435 [label="mse = 1.562\nsamples = 8\nvalue = 53.75"] ;
434 -> 435 ;
436 [label="mse = 8.025\nsamples = 9\nvalue = 50.556"] ;
434 -> 436 ;
437 [label="destination=Boston University <= 0.5\nmse = 18.492\nsamples = 11\nvalue = 59.091"] ;
429 -> 437 ;
438 [label="source=Fenway <= 0.5\nmse = 1.562\nsamples = 2\nvalue = 66.25"] ;
437 -> 438 ;
439 [label="mse = 0.0\nsamples = 1\nvalue = 65.0"] ;
438 -> 439 ;
440 [label="mse = 0.0\nsamples = 1\nvalue = 67.5"] ;
438 -> 440 ;
441 [label="distance <= 5.185\nmse = 8.333\nsamples = 9\nvalue = 57.5"] ;
437 -> 441 ;
442 [label="mse = 0.0\nsamples = 2\nvalue = 62.5"] ;
441 -> 442 ;
443 [label="mse = 1.531\nsamples = 7\nvalue = 56.071"] ;
441 -> 443 ;
444 [label="surge_multiplier <= 1.625\nmse = 115.359\nsamples = 592\nvalue = 61.53"] ;
380 -> 444 ;
445 [label="distance <= 3.54\nmse = 38.774\nsamples = 294\nvalue = 54.422"] ;
444 -> 445 ;
446 [label="distance <= 2.88\nmse = 17.785\nsamples = 238\nvalue = 52.2"] ;
445 -> 446 ;
447 [label="source=Beacon Hill <= 0.5\nmse = 13.012\nsamples = 77\nvalue = 48.818"] ;
446 -> 447 ;
448 [label="destination=Beacon Hill <= 0.5\nmse = 12.522\nsamples = 70\nvalue = 49.179"] ;
447 -> 448 ;
449 [label="mse = 13.786\nsamples = 49\nvalue = 49.929"] ;
448 -> 449 ;
450 [label="mse = 5.197\nsamples = 21\nvalue = 47.429"] ;
448 -> 450 ;
451 [label="destination=Fenway <= 0.5\nmse = 3.633\nsamples = 7\nvalue = 45.214"] ;
447 -> 451 ;
452 [label="mse = 2.806\nsamples = 6\nvalue = 45.667"] ;
451 -> 452 ;
453 [label="mse = 0.0\nsamples = 1\nvalue = 42.5"] ;
451 -> 453 ;
454 [label="destination=Financial District <= 0.5\nmse = 11.984\nsamples = 161\nvalue = 53.817"] ;
446 -> 454 ;
455 [label="distance <= 3.255\nmse = 9.633\nsamples = 156\nvalue = 53.538"] ;
454 -> 455 ;
456 [label="mse = 9.988\nsamples = 105\nvalue = 52.805"] ;
455 -> 456 ;
457 [label="mse = 5.512\nsamples = 51\nvalue = 55.049"] ;
455 -> 457 ;
458 [label="source=Northeastern University <= 0.5\nmse = 7.5\nsamples = 5\nvalue = 62.5"] ;
454 -> 458 ;
459 [label="mse = 1.562\nsamples = 4\nvalue = 63.75"] ;
458 -> 459 ;
460 [label="mse = 0.0\nsamples = 1\nvalue = 57.5"] ;
458 -> 460 ;
461 [label="distance <= 5.635\nmse = 17.799\nsamples = 56\nvalue = 63.866"] ;
445 -> 461 ;
462 [label="source=Northeastern University <= 0.5\nmse = 13.0\nsamples = 55\nvalue = 63.564"] ;
461 -> 462 ;
463 [label="distance <= 4.255\nmse = 10.296\nsamples = 50\nvalue = 64.12"] ;
462 -> 463 ;
464 [label="mse = 1.55\nsamples = 11\nvalue = 66.364"] ;
463 -> 464 ;
465 [label="mse = 10.942\nsamples = 39\nvalue = 63.487"] ;
463 -> 465 ;
466 [label="distance <= 4.04\nmse = 6.0\nsamples = 5\nvalue = 58.0"] ;
462 -> 466 ;
467 [label="mse = 0.0\nsamples = 1\nvalue = 62.5"] ;
466 -> 467 ;
468 [label="mse = 1.172\nsamples = 4\nvalue = 56.875"] ;
466 -> 468 ;
469 [label="mse = 0.0\nsamples = 1\nvalue = 80.5"] ;
461 -> 469 ;
470 [label="distance <= 3.4\nmse = 91.898\nsamples = 298\nvalue = 68.542"] ;
444 -> 470 ;
471 [label="surge_multiplier <= 1.875\nmse = 50.809\nsamples = 209\nvalue = 64.347"] ;
470 -> 471 ;
472 [label="distance <= 2.955\nmse = 27.97\nsamples = 108\nvalue = 59.995"] ;
471 -> 472 ;
473 [label="distance <= 2.695\nmse = 17.059\nsamples = 57\nvalue = 57.105"] ;
472 -> 473 ;
474 [label="mse = 6.238\nsamples = 23\nvalue = 54.891"] ;
473 -> 474 ;
475 [label="mse = 18.82\nsamples = 34\nvalue = 58.603"] ;
473 -> 475 ;
476 [label="destination=Financial District <= 0.5\nmse = 20.395\nsamples = 51\nvalue = 63.225"] ;
472 -> 476 ;
477 [label="mse = 16.709\nsamples = 46\nvalue = 62.554"] ;
476 -> 477 ;
478 [label="mse = 12.04\nsamples = 5\nvalue = 69.4"] ;
476 -> 478 ;
479 [label="distance <= 3.005\nmse = 33.332\nsamples = 101\nvalue = 69.0"] ;
471 -> 479 ;
480 [label="destination=Financial District <= 0.5\nmse = 13.5\nsamples = 52\nvalue = 65.904"] ;
479 -> 480 ;
481 [label="mse = 8.724\nsamples = 50\nvalue = 65.47"] ;
480 -> 481 ;
482 [label="mse = 10.562\nsamples = 2\nvalue = 76.75"] ;
480 -> 482 ;
483 [label="destination=Financial District <= 0.5\nmse = 33.408\nsamples = 49\nvalue = 72.286"] ;
479 -> 483 ;
484 [label="mse = 25.221\nsamples = 45\nvalue = 71.389"] ;
483 -> 484 ;
485 [label="mse = 14.672\nsamples = 4\nvalue = 82.375"] ;
483 -> 485 ;
486 [label="surge_multiplier <= 1.875\nmse = 50.014\nsamples = 89\nvalue = 78.393"] ;
470 -> 486 ;
487 [label="distance <= 3.51\nmse = 26.343\nsamples = 46\nvalue = 74.293"] ;
486 -> 487 ;
488 [label="distance <= 3.445\nmse = 3.5\nsamples = 5\nvalue = 64.5"] ;
487 -> 488 ;
489 [label="mse = 0.0\nsamples = 2\nvalue = 62.5"] ;
488 -> 489 ;
490 [label="mse = 1.389\nsamples = 3\nvalue = 65.833"] ;
488 -> 490 ;
491 [label="distance <= 5.035\nmse = 16.006\nsamples = 41\nvalue = 75.488"] ;
487 -> 491 ;
492 [label="mse = 11.275\nsamples = 39\nvalue = 75.013"] ;
491 -> 492 ;
493 [label="mse = 18.062\nsamples = 2\nvalue = 84.75"] ;
491 -> 493 ;
494 [label="distance <= 4.23\nmse = 38.12\nsamples = 43\nvalue = 82.779"] ;
486 -> 494 ;
495 [label="destination=Financial District <= 0.5\nmse = 19.827\nsamples = 17\nvalue = 78.735"] ;
494 -> 495 ;
496 [label="mse = 9.602\nsamples = 10\nvalue = 77.15"] ;
495 -> 496 ;
497 [label="mse = 25.714\nsamples = 7\nvalue = 81.0"] ;
495 -> 497 ;
498 [label="distance <= 5.16\nmse = 32.398\nsamples = 26\nvalue = 85.423"] ;
494 -> 498 ;
499 [label="mse = 28.994\nsamples = 22\nvalue = 84.227"] ;
498 -> 499 ;
500 [label="mse = 0.0\nsamples = 4\nvalue = 92.0"] ;
498 -> 500 ;
}